one 0.31474 0.41662 0.1348 0.15854 0.88812 0.43317 -0.55916 0.030476 -0.14623 -0.14273 -0.17949 -0.17343 -0.49264 0.26775 0.48799 -0.29537 0.18485 0.14937 -0.75009 -0.35651 -0.23699 0.1849 0.17237 0.23611 0.14077 -1.9031 -0.65353 -0.022539 0.10383 -0.43705 3.781 -0.044077 -0.046643 0.027274 0.51883 0.13353 0.23231 0.25599 0.060888 -0.065618 -0.15556 0.30818 -0.093586 0.33296 -0.14613 0.016332 -0.24251 -0.20526 0.07009 -0.11568
two 0.58289 0.36258 0.34065 0.36416 0.34337 0.79387 -0.9362 0.11432 -0.63005 -0.55524 -0.28706 -0.47143 -0.75673 0.63868 0.22479 -0.64652 -0.074314 -0.34903 -0.97285 -0.53981 0.015171 0.24479 0.62661 0.070447 -0.51629 -1.2004 0.3122 -0.44053 -0.29869 -0.56326 4.022 0.38463 -0.028468 0.068716 1.0746 0.48309 0.2475 0.22802 -0.35743 0.40392 -0.54738 0.15244 0.41 0.15702 0.0077935 -0.015106 -0.28653 -0.16158 -0.35169 -0.82555
three 0.40545 0.43805 0.36237 0.25683 0.38254 0.68255 -0.97853 0.12741 -0.46129 -0.54809 -0.35384 -0.56697 -0.65756 0.50184 0.53248 -0.77956 -0.089944 -0.37572 -1.1097 -0.30734 -0.022657 0.11632 0.67704 -0.051499 -0.59719 -1.02 0.24289 -0.60216 -0.35183 -0.54053 3.9844 0.41521 0.040419 0.26909 1.1193 0.52924 0.37308 0.28924 -0.14714 0.23566 -0.72709 0.053276 0.45373 0.20374 -0.13384 0.015313 -0.22037 -0.15662 -0.30289 -0.77536
four 0.33375 0.44809 0.54759 0.21497 0.32637 0.70326 -0.95872 0.057798 -0.43454 -0.55322 -0.40482 -0.65793 -0.75076 0.58097 0.51968 -0.86607 -0.10026 -0.11609 -1.2668 -0.46131 -0.10421 0.13894 0.70448 -0.0040651 -0.56479 -0.99797 0.30126 -0.53745 -0.42073 -0.49521 3.9051 0.43253 0.017059 0.31489 1.2546 0.52463 0.46232 0.29622 -0.23879 0.12913 -0.75519 -0.065684 0.52592 0.20047 -0.15982 0.18293 -0.29966 -0.1926 -0.30174 -0.80437
five 0.21127 0.36828 0.49602 0.1788 0.43289 0.54778 -0.87517 -0.0041254 -0.27834 -0.40703 -0.50086 -0.68307 -0.53653 0.45692 0.79462 -0.73291 -0.053002 -0.30099 -1.0922 -0.15156 -0.04084 0.1819 0.75583 -0.09576 -0.52397 -0.95095 0.36684 -0.67003 -0.36539 -0.42036 3.9139 0.46919 0.048142 0.49178 1.0773 0.41012 0.37403 0.3022 -0.042142 0.15053 -0.90656 -0.027023 0.60757 0.29086 -0.22531 0.1413 -0.35703 -0.088937 -0.2961 -0.72497
six 0.29281 0.31322 0.58541 0.044983 0.38666 0.60109 -0.87665 0.09606 -0.19744 -0.49457 -0.41672 -0.75916 -0.6508 0.52929 0.6589 -0.79883 -0.1297 -0.28493 -1.2256 -0.22497 -0.011196 0.2396 0.77621 -0.14746 -0.62975 -0.93334 0.55396 -0.54297 -0.3178 -0.30144 3.8218 0.45976 -0.07032 0.44685 1.1156 0.41392 0.50005 0.19087 -0.14513 0.046651 -0.7588 -0.15138 0.56228 0.16382 -0.22547 0.11267 -0.32517 0.061608 -0.37181 -0.66733
white -0.68652 0.80125 -0.6124 -0.1512 0.997 0.81749 -1.2089 -1.0221 -0.94054 -1.2689 -0.68195 -0.12212 0.6122 0.045025 -0.10808 0.12482 -0.17278 -0.45383 -0.37728 -1.4081 -0.42975 0.31746 0.61391 -0.76399 -0.75504 -1.5605 -0.14924 1.2023 0.36776 -0.49137 2.6151 -0.37237 -0.80641 -0.56119 0.028241 -0.20089 -0.36429 -0.51476 -0.23074 -0.72258 -0.086035 0.47341 -0.035288 -0.04892 0.85295 -0.25883 -0.48159 -0.79552 -0.12247 -0.098168
man -0.094386 0.43007 -0.17224 -0.45529 1.6447 0.40335 -0.37263 0.25071 -0.10588 0.10778 -0.10848 0.15181 -0.65396 0.55054 0.59591 -0.46278 0.11847 0.64448 -0.70948 0.23947 -0.82905 1.272 0.033021 0.2935 0.3911 -2.8094 -0.70745 0.4106 0.3894 -0.2913 2.6124 -0.34576 -0.16832 0.25154 0.31216 0.31639 0.12539 -0.012646 0.22297 -0.56585 -0.086264 0.62549 -0.0576 0.29375 0.66005 -0.53115 -0.48233 -0.97925 0.53135 -0.11725
seven 0.271 0.40263 0.49204 0.18279 0.40656 0.52487 -0.89496 0.22862 -0.28704 -0.46034 -0.6293 -0.59112 -0.61332 0.50357 0.74662 -0.85773 -0.054881 -0.37906 -1.2336 -0.00085258 -0.056966 0.20703 0.75846 -0.10698 -0.5638 -0.77717 0.35028 -0.70106 -0.33252 -0.39569 3.6042 0.48765 0.12197 0.41268 1.0879 0.47126 0.33869 0.10117 -0.055742 0.063739 -1.0909 -0.18791 0.55199 0.30131 -0.25402 0.24027 -0.40994 -0.11698 -0.2771 -0.81605
eight 0.0691 0.42247 0.67768 0.22944 0.40694 0.60352 -0.74431 0.25769 -0.24504 -0.46178 -0.52454 -0.91074 -0.49691 0.52518 0.59525 -1.0125 -0.1745 -0.15636 -1.3133 -0.20655 -0.036517 0.17894 0.76015 -0.16871 -0.52895 -0.8503 0.46335 -0.67872 -0.39183 -0.4092 3.5699 0.55358 0.076693 0.38853 1.1011 0.53138 0.49286 0.31955 -0.18245 0.014887 -0.85835 -0.19661 0.6663 0.1232 -0.046825 0.19542 -0.38691 -0.10834 -0.33741 -0.79467
black -0.96256 0.65329 -0.55152 -0.41065 0.80223 0.9833 -0.96007 -1.029 -0.47013 -0.6812 0.071232 -0.25591 0.60577 0.29845 -0.1837 -0.26064 -0.038707 0.11412 -0.72028 -1.2694 -0.73858 0.3357 0.44293 0.02566 -0.97692 -1.6867 -0.88665 0.75824 0.18836 -0.6932 2.6144 0.11718 -0.45564 -0.42953 -0.052095 0.11656 -0.66685 -0.86056 -0.093886 -0.74592 -0.062858 0.54547 0.28987 -0.26887 0.71881 -0.074307 -0.18512 -1.2621 -0.3246 -0.56563
red -0.12878 0.8798 -0.60694 0.12934 0.5868 -0.038246 -1.0408 -0.52881 -0.29563 -0.72567 0.21189 0.17112 0.19173 0.36099 0.032672 -0.2743 -0.19291 -0.10909 -1.0057 -0.93901 -1.0207 -0.69995 0.57182 -0.45136 -1.2145 -1.1954 -0.32758 1.4921 0.54574 -1.0008 2.845 0.26479 -0.49938 0.34366 -0.12574 0.5905 -0.037696 -0.47175 0.050825 -0.20362 0.13695 0.26686 -0.19461 -0.75482 1.0303 -0.057467 -0.32327 -0.7712 -0.16764 -0.73835
king 0.50451 0.68607 -0.59517 -0.022801 0.60046 -0.13498 -0.08813 0.47377 -0.61798 -0.31012 -0.076666 1.493 -0.034189 -0.98173 0.68229 0.81722 -0.51874 -0.31503 -0.55809 0.66421 0.1961 -0.13495 -0.11476 -0.30344 0.41177 -2.223 -1.0756 -1.0783 -0.34354 0.33505 1.9927 -0.04234 -0.64319 0.71125 0.49159 0.16754 0.34344 -0.25663 -0.8523 0.1661 0.40102 1.1685 -1.0137 -0.21585 -0.15155 0.78321 -0.91241 -1.6106 -0.64426 -0.51042
nine 0.11967 0.099838 0.60112 0.10356 0.45172 0.55896 -0.91281 0.21906 -0.25593 -0.3985 -0.53094 -0.88653 -0.60865 0.35077 0.60692 -0.99208 -0.10708 -0.45321 -1.2554 -0.092974 -0.0073627 0.33985 0.78436 -0.14057 -0.44911 -0.71987 0.3185 -0.68564 -0.40698 -0.3476 3.4606 0.48291 0.33634 0.42867 1.0276 0.36609 0.42525 0.12409 -0.10621 0.07925 -0.97746 -0.10459 0.63682 0.20313 -0.35979 0.13175 -0.48944 -0.089255 -0.23389 -0.83616
woman -0.18153 0.64827 -0.5821 -0.49451 1.5415 1.345 -0.43305 0.58059 0.35556 -0.25184 0.20254 -0.71643 0.3061 0.56127 0.83928 -0.38085 -0.90875 0.43326 -0.014436 0.23725 -0.53799 1.7773 -0.066433 0.69795 0.69291 -2.6739 -0.76805 0.33929 0.19695 -0.35245 2.292 -0.27411 -0.30169 0.00085286 0.16923 0.091433 -0.02361 0.036236 0.34488 -0.83947 -0.25174 0.42123 0.48616 0.022325 0.5576 -0.85223 -0.23073 -1.3138 0.48764 -0.10467
green -0.5767 0.86953 -0.49108 -0.1078 0.65377 0.32548 -1.326 -1.0114 -0.20658 -0.79937 -0.41455 0.084769 0.25426 -0.10999 -0.64696 0.17882 0.68277 -0.019661 -0.59745 -1.0414 -0.55979 -0.18503 0.49271 -0.53623 -0.63925 -0.91267 0.15709 1.3784 0.45686 -0.76237 2.5792 -0.22079 -0.59114 -0.17395 0.27835 0.30161 -0.12137 0.21278 0.23306 -0.74012 0.12318 -0.028115 -0.421 -0.60167 0.71802 0.19434 -0.11682 -1.1335 0.49009 -0.020496
brown -0.88497 0.71685 -0.40379 -0.10698 0.81457 1.0258 -1.2698 -0.49382 -0.27839 -0.92251 -0.49409 0.78942 -0.20066 -0.057371 0.060682 0.30746 0.13441 -0.49376 -0.54788 -0.81912 -0.45394 0.52098 1.0325 -0.8584 -0.65848 -1.2736 0.23616 1.0486 0.18442 -0.3901 2.1385 -0.45301 -0.16911 -0.46737 0.15938 -0.095071 -0.26512 -0.056479 0.63849 -1.0494 0.037507 0.76434 -0.6412 -0.59594 0.46589 0.31494 -0.34072 -0.59167 -0.31057 0.73274
blue -0.83751 0.69563 -0.51408 0.23689 0.59192 -0.027491 -1.2076 -0.98796 -0.27658 -0.4618 0.4715 0.13072 0.50393 0.50556 -0.66766 0.069073 -0.60984 -0.22776 -1.2481 -1.3521 -0.56051 -0.17952 0.22886 -0.69244 -1.1734 -0.98778 -0.81551 1.5513 0.36517 -1.1162 2.632 0.21987 0.10695 0.28438 -0.10348 -0.29667 -0.17645 -0.75838 0.085523 -0.83641 -0.12174 -0.063165 -0.072053 -0.30712 0.61861 -0.30867 0.012374 -1.1966 0.041525 -0.23966
boy -0.32345 0.23332 -0.20082 -0.52848 1.0926 0.62445 -0.99859 0.28085 0.088326 0.36919 0.32199 0.3499 0.067459 0.24211 0.92565 -0.32581 -0.99134 0.80767 -0.22845 0.40076 -0.8577 1.3836 0.056439 0.76561 0.3608 -2.0692 -0.46679 0.12359 0.35127 -0.77092 2.2064 -0.42605 -0.24279 0.3832 0.6069 0.62835 0.31825 -0.8851 0.38329 -1.146 -0.41949 0.2606 -0.6568 -0.11511 1.0591 -0.61148 0.32152 -1.3182 0.31744 0.02527
ten -0.43902 0.73368 0.50905 -0.3462 0.30353 0.24578 -0.56543 -0.023565 -0.16524 -0.49679 -0.28442 -0.46709 -0.18074 0.15855 0.6671 -0.86728 0.24113 0.06219 -1.0846 -0.038538 0.15457 -0.3967 1.0102 0.29877 -0.14961 -0.46682 -0.39891 -0.8396 -0.53424 -0.3373 3.0237 0.17529 0.3748 0.076426 0.8136 0.52744 0.57616 0.29958 -0.41319 -0.091445 -0.59129 -0.51534 0.28042 -0.023567 -0.41337 0.034601 -0.20836 -0.42381 -0.22908 -0.68114
girl -0.34471 0.69563 -0.78086 -0.58482 1.2263 1.2544 -0.76466 0.40575 0.18862 0.098834 0.32557 -0.31816 0.23869 0.33554 1.0592 -0.25266 -1.0308 0.70027 0.030457 0.53866 -0.30279 1.7515 0.3128 1.2103 0.41335 -1.9421 -0.93756 0.32453 0.52249 -0.86708 2.1258 -0.20377 -0.19061 0.37736 0.66205 0.50211 -0.12544 -0.83069 0.21155 -1.3091 -0.44973 -0.11648 0.033598 -0.68382 0.99419 -0.88262 0.56601 -1.327 0.37319 0.022389
prince 0.98846 1.4535 -0.53081 0.10509 0.84058 0.14018 0.066562 1.3341 -0.75813 -0.35223 0.16588 1.0016 0.019623 -0.66392 0.092825 0.25132 -0.16274 -0.11954 -0.50072 0.67374 0.66886 -0.038679 0.20223 -0.15211 0.12169 -1.8324 -0.85664 -0.62454 -0.31896 0.60221 1.411 0.50157 -0.11413 0.51808 0.847 0.17618 -0.035265 0.56405 -0.38524 0.6027 0.34331 1.1836 -0.37197 -1.1069 0.00012758 -0.18202 -1.3696 -1.497 0.40618 -0.42445
microsoft 0.58446 -1.4571 1.1942 1.7112 -0.29475 -0.4456 -0.71201 -1.2774 0.13483 0.94727 -0.24393 0.59673 -1.0289 -0.92938 0.55989 0.18611 -1.3046 -0.0011078 0.79537 -1.071 -0.0072619 0.18303 -0.68113 -0.17635 -0.10312 -1.0676 0.54112 -0.43788 -0.19886 -0.5576 2.5576 -0.96828 -0.32658 -0.43282 -0.32152 -1.0116 -0.47317 -0.34556 -0.51813 -1.5476 0.8707 -0.29595 -0.18088 1.0937 -0.16805 0.61974 0.37071 0.22612 -0.27747 0.5925
queen 0.37854 1.8233 -1.2648 -0.1043 0.35829 0.60029 -0.17538 0.83767 -0.056798 -0.75795 0.22681 0.98587 0.60587 -0.31419 0.28877 0.56013 -0.77456 0.071421 -0.5741 0.21342 0.57674 0.3868 -0.12574 0.28012 0.28135 -1.8053 -1.0421 -0.19255 -0.55375 -0.054526 1.5574 0.39296 -0.2475 0.34251 0.45365 0.16237 0.52464 -0.070272 -0.83744 -1.0326 0.45946 0.25302 -0.17837 -0.73398 -0.20025 0.2347 -0.56095 -2.2839 0.0092753 -0.60284
fish 0.2559 -0.31452 -1.0079 0.1434 0.52982 0.31531 -0.82169 0.0060026 1.5235 -0.40637 0.20401 0.93042 2.061 0.73117 0.44506 -0.0043559 1.2895 -0.16854 -1.1219 -0.80836 -0.19725 -1.2056 1.2739 0.23962 0.44387 -0.77988 0.1557 0.28534 1.0253 -0.61694 2.5009 -0.41019 0.57532 0.51033 -0.060849 0.40419 -0.34696 0.38221 0.629 -0.22291 -0.32009 0.21292 1.0723 0.32437 1.3304 0.54586 -0.22236 -0.80589 0.16487 0.29792
bird 0.78675 0.079368 -0.76597 0.1931 0.55014 0.26493 -0.75841 -0.8818 1.6468 -0.54381 0.33519 0.44399 1.089 0.27044 0.74471 0.2487 0.2491 -0.28966 -1.4556 0.35605 -1.1725 -0.49858 0.35345 -0.1418 0.71734 -1.1416 -0.038701 0.27515 -0.017704 -0.44013 1.9597 -0.064666 0.47177 -0.03 -0.31617 0.26984 0.56195 -0.27882 -0.36358 -0.21923 -0.75046 0.31817 0.29354 0.25109 1.6111 0.7134 -0.15243 -0.25362 0.26419 0.15875
yellow -0.18063 0.76194 -0.53856 0.07822 0.3489 0.38896 -0.51983 -0.66888 0.26164 -0.60095 0.39925 -0.093446 0.67184 0.011413 -0.24516 -0.52065 -0.67089 -0.21113 -0.89741 -1.4743 -1.2168 -1.0192 0.8226 -0.37338 -0.53138 -0.80159 -0.15924 1.9076 0.31224 -0.83472 2.2394 0.31135 -0.21577 0.17477 -0.15223 0.4988 -0.040134 -0.083109 -0.38235 -0.37043 0.50065 0.33966 -0.31732 -0.55932 1.0067 -0.26329 0.26995 -1.0854 0.47641 -1.1853
horse -0.20454 0.23321 -0.59158 -0.29205 0.29391 0.31169 -0.94937 0.055974 1.0031 -1.0761 -0.0094648 0.18381 -0.048405 -0.35717 0.26004 -0.41028 0.51489 1.2009 -1.6136 -1.1003 -0.23455 -0.81654 -0.15103 0.37068 0.477 -1.7027 -1.2183 0.038898 0.23327 0.028245 1.6588 0.26703 -0.29938 0.99149 0.34263 0.15477 0.028372 0.56276 -0.62823 -0.67923 -0.163 -0.49922 -0.8599 0.85469 0.75059 -1.0399 -0.11033 -1.4237 0.65984 -0.3198
dog 0.11008 -0.38781 -0.57615 -0.27714 0.70521 0.53994 -1.0786 -0.40146 1.1504 -0.5678 0.0038977 0.52878 0.64561 0.47262 0.48549 -0.18407 0.1801 0.91397 -1.1979 -0.5778 -0.37985 0.33606 0.772 0.75555 0.45506 -1.7671 -1.0503 0.42566 0.41893 -0.68327 1.5673 0.27685 -0.61708 0.64638 -0.076996 0.37118 0.1308 -0.45137 0.25398 -0.74392 -0.086199 0.24068 -0.64819 0.83549 1.2502 -0.51379 0.04224 -0.88118 0.7158 0.38519
bear 0.57121 0.71624 -0.10722 -0.354 1.0103 0.62455 -0.67356 -0.2966 0.14884 -0.64063 -0.30318 0.78758 0.34078 -0.2071 0.21783 0.6245 0.60284 0.069331 -0.76017 -0.034367 -0.14013 -0.58553 0.20887 -0.42097 -0.18276 -1.4074 -1.3744 0.50943 0.34844 -0.93932 1.7419 0.46836 0.36162 0.051057 0.041189 0.070042 -0.44726 -1.0308 0.27728 -0.65125 -0.80276 -0.29095 0.050477 -0.028209 0.63405 -0.7284 -0.064858 0.0087279 0.13339 -0.061488
orange -0.42783 0.43089 -0.50351 0.5776 0.097786 0.2608 -0.68767 -0.31936 -0.25337 -0.37255 -0.045907 -0.53688 0.97511 -0.44595 -0.50414 -0.086751 -1.0645 0.36625 -0.52428 -1.3413 -0.2391 -0.58808 0.56378 -0.062501 -1.7429 -0.88077 -0.27933 1.4705 0.50436 -0.69174 2.0018 0.26663 -0.85679 -0.18893 -0.021125 -0.055118 -0.50337 -0.67157 0.55502 -0.8009 0.10695 0.1459 -0.55588 -0.64971 0.22046 0.67415 -0.45119 -1.1462 0.16348 -0.62946
apple 0.52042 -0.8314 0.49961 1.2893 0.1151 0.057521 -1.3753 -0.97313 0.18346 0.47672 -0.15112 0.35532 0.25912 -0.77857 0.52181 0.47695 -1.4251 0.858 0.59821 -1.0903 0.33574 -0.60891 0.41742 0.21569 -0.07417 -0.5822 -0.4502 0.17253 0.16448 -0.38413 2.3283 -0.66682 -0.58181 0.74389 0.095015 -0.47865 -0.84591 0.38704 0.23693 -1.5523 0.64802 -0.16521 -1.4719 -0.16224 0.79857 0.97391 0.40027 -0.21912 -0.30938 0.26581
tiger 0.33183 -0.60256 -0.046032 0.89941 0.26504 -0.02695 -0.89378 -0.21996 0.28162 -0.7974 -0.15519 -0.15385 -0.4443 -0.060597 0.17669 0.49661 1.0924 0.6526 -1.4514 0.5046 -1.4857 0.60573 0.51944 -0.39546 0.2653 -1.0493 -0.79394 -0.0085854 -0.2987 -0.41866 2.0018 -0.078285 -0.72413 1.3828 0.5019 0.35222 -0.37933 -0.81655 -0.59159 -1.0502 -0.55532 -0.46533 -0.3038 0.11061 1.3216 -0.34734 0.039552 0.046421 -0.086983 -0.45584
zero -0.0051918 0.47477 0.89026 -0.59782 0.75629 -0.16109 0.66853 -0.7816 0.29081 0.59619 0.29581 -0.2149 -0.30391 0.071141 0.5606 0.17341 0.25578 -0.0071424 -0.77113 -0.45378 -0.12221 -0.7971 0.19035 -0.304 -0.11841 -0.64964 -0.11693 0.4723 0.82884 0.25361 2.4352 0.40537 -0.22747 -0.32201 -0.03266 -0.56481 0.47698 -0.64537 0.26544 0.2353 -0.38494 -0.16943 -0.0044646 0.13025 -0.75122 -0.23814 0.6684 0.20171 0.47011 0.44107
princess 1.4992 1.6053 -1.1699 0.69597 0.63491 1.0803 -0.15271 1.0974 -0.12842 -0.74608 0.59572 0.76493 0.18664 -0.47217 0.72322 0.48368 -1.4334 -0.032644 -0.1652 0.38196 0.71329 0.89524 -0.26091 0.44074 0.52343 -1.2422 -1.8396 -0.10232 -0.081415 -0.087913 0.91303 0.69385 0.26242 1.0921 0.66015 -0.19193 -0.028172 -0.13914 -0.54633 -0.75658 0.45368 0.066445 0.49774 -1.2702 0.10915 -0.46564 -0.65682 -2.0678 0.72255 -0.35506
google 0.969 -0.61799 1.6561 1.4079 -0.063774 -0.45934 -1.0961 -1.2889 0.51762 0.48351 0.0055815 0.27758 -0.63178 -0.41388 0.41559 0.27384 -0.90019 -0.48922 0.38597 -0.81652 0.59012 -0.41399 -0.27623 0.32718 0.59101 -0.91574 -0.2532 -0.43769 -0.51452 -0.7086 1.8017 -0.55229 -0.41493 -0.64137 -1.0188 -1.1337 -0.77804 0.0015144 -0.81687 -0.80404 1.1654 -0.35197 -0.39405 0.63104 -0.0911 -0.51041 0.65359 0.1184 0.29559 0.18361
cat 0.45281 -0.50108 -0.53714 -0.015697 0.22191 0.54602 -0.67301 -0.6891 0.63493 -0.19726 0.33685 0.7735 0.90094 0.38488 0.38367 0.2657 -0.08057 0.61089 -1.2894 -0.22313 -0.61578 0.21697 0.35614 0.44499 0.60885 -1.1633 -1.1579 0.36118 0.10466 -0.78325 1.4352 0.18629 -0.26112 0.83275 -0.23123 0.32481 0.14485 -0.44552 0.33497 -0.95946 -0.097479 0.48138 -0.43352 0.69455 0.91043 -0.28173 0.41637 -1.2609 0.71278 0.23782
pink -0.17271 0.95417 -0.84464 0.11818 0.087641 0.84337 -0.73347 -1.1093 -0.25643 0.097234 0.012908 0.13701 0.72675 0.33118 0.25684 -0.020378 -0.54783 -0.0069103 -0.38184 -1.3683 -0.80791 -0.22261 0.66085 -0.69439 -0.97622 -0.23337 -1.0628 2.0045 0.42777 -1.4457 1.6293 0.073724 -0.3537 0.55845 -0.28224 0.31409 0.2521 -0.37115 -0.19895 -1.2552 0.10809 0.08829 -0.47171 -0.70476 0.84641 -0.43109 0.0019027 -1.714 -0.11932 -0.51271
lion 0.60093 0.012934 -0.61032 -0.13871 1.2507 0.10128 -0.20073 -1.1283 0.60857 -0.16666 0.22419 0.61781 0.50102 -0.22303 -0.011922 0.24229 0.82199 0.5748 -1.9703 0.044589 0.22157 -0.26673 -0.005156 -0.36311 -0.42483 -0.79237 -1.557 0.22124 -0.32143 -0.46747 1.0604 0.84237 0.045337 0.86075 -0.085506 0.0058815 -0.16237 -1.0329 -0.25763 -0.65854 -0.13647 0.3653 -0.61384 -0.54004 0.24051 -0.23007 -0.31155 -1.3485 0.4327 -0.34512
purple -0.51244 1.3755 -1.0203 -0.16129 0.46391 0.52021 -0.12554 -0.92437 -0.28947 -0.14339 0.33583 0.25146 1.0219 -0.12813 -0.39856 -0.076474 -0.69752 0.20905 -0.92861 -0.98031 -1.0163 -0.50338 1.1099 -1.046 -0.87251 -0.47121 -0.8332 1.7418 0.43909 -1.2089 1.461 0.31565 -0.3033 0.032728 -0.17728 0.49368 -0.0027891 -0.35415 -0.27876 -0.62239 0.094379 0.0017213 -0.68539 -0.81577 1.0079 -0.2438 -0.0022043 -1.4059 -0.43023 -0.56384
facebook 0.50248 0.10375 1.6825 0.60564 0.080408 -0.096378 -1.3325 -1.0853 0.27789 0.61109 -0.23044 -0.25419 -0.41496 -0.66857 0.90437 0.070662 -0.99646 -0.23861 1.076 0.019238 0.54294 0.11509 -0.044859 1.0704 0.6394 -0.25886 0.30337 -0.67565 -0.53396 -0.59785 1.6814 -0.00598 -0.12614 -0.82862 -1.2254 -0.13355 -0.074345 -0.67755 -0.89556 -0.8341 1.0422 -0.70266 -1.4604 0.76414 0.52434 -0.87978 0.12579 -0.1819 0.1785 -0.10107
amazon 0.56819 -0.95609 0.51209 1.2099 -0.41932 -0.95927 -1.6395 -0.54107 1.9927 0.52376 0.43134 0.13192 0.83592 -0.92256 0.47082 -0.17108 -0.28848 -0.33112 0.17742 -0.28483 -0.66346 -0.21574 -0.0038212 0.5806 0.52053 -0.29594 -0.59803 -0.020501 2.0361e-05 -0.40889 1.7009 -0.72181 -0.12583 0.64527 -0.32646 -0.51385 -1.2212 -0.92832 -0.025463 -0.55119 0.38169 0.38407 0.15121 -0.24931 -0.74834 0.15595 0.27273 -0.16356 0.059135 -0.76426
elephant 0.53238 -0.26987 -0.72294 -0.45325 1.0188 0.31013 -0.67626 -1.3509 1.4854 -0.51832 0.26574 0.10283 0.94469 -0.12249 0.54467 0.38361 1.0307 0.59792 -1.1687 0.45008 -0.74563 -0.2027 -0.36233 -0.084513 0.4107 -0.88857 -0.17601 0.44655 -0.29449 -0.72429 1.1036 0.16668 -0.15839 0.63755 -0.10105 0.8701 0.24232 -0.71078 -0.41333 -0.44293 -0.68612 0.11676 -0.31466 0.1242 1.1761 -0.45089 0.17163 -0.93316 0.3179 -0.85743
monkey 0.28704 -0.60904 -0.74821 0.17686 0.92118 0.36994 0.10464 -1.0945 0.45246 0.75508 0.041291 0.61758 0.82508 0.7044 0.12365 -0.081073 -0.060157 0.90245 -1.2025 0.04606 -0.57476 -0.15483 0.45276 -0.087841 0.49575 -1.0462 -0.59215 0.40345 -0.11113 -1.3799 0.97611 -0.312 -0.75014 0.44309 -0.0056967 0.44116 0.073432 -0.76681 0.12938 -0.54472 -0.74424 0.19052 -0.80318 0.54953 1.1741 0.37876 0.93837 -1.0941 0.2474 -0.69492
